MTP
version = 1.1.0
potential_name = MTP1m
scaling = 7.702546296296300e-01
species_count = 5
potential_tag = 
radial_basis_type = RBChebyshev
	min_dist = 2.000000000000000e+00
	max_dist = 5.000000000000000e+00
	radial_basis_size = 8
	radial_funcs_count = 4
	radial_coeffs
		0-0
			{-5.339345429902896e-04, 2.353168255497576e-02, -1.627138272938469e-02, -4.938371607794016e-02, -3.898754394405613e-02, -2.746957193956963e-02, -1.245120528581013e-02, -6.809412935436137e-03}
			{-1.380312067203116e-02, -5.769829030163982e-02, -3.351059807805733e-02, -2.437610247378897e-02, -1.038542768446210e-02, -7.430266344726746e-03, -2.845553561305087e-03, -1.319965521404674e-03}
			{-1.085934350104095e-01, -4.566755386409595e-02, -6.681662679428614e-02, -2.956999624395013e-02, 4.217186999841659e-03, 1.191708611571832e-04, -8.087607226693709e-03, -5.004740286184452e-03}
			{-8.908983716930552e-03, 1.014391998809739e-01, 7.611121591253305e-02, 2.574803381097535e-02, 2.617917194697295e-02, 1.380570356141200e-02, 4.859773329103396e-03, 2.078411760398743e-03}
		0-1
			{1.145440634872946e-01, 2.785593301545970e-01, 1.841787729986984e-01, 1.110483320267401e-01, 6.915042408339819e-02, 3.171820006908854e-02, 7.351571842270759e-03, 9.382698894680912e-06}
			{1.423103286605672e-02, -7.121382601567437e-03, 2.122595318172180e-02, 2.850146914753497e-02, 2.269160044891237e-02, 1.656895135211671e-02, 8.315560849546067e-03, 5.489559242592566e-03}
			{-3.708115054312210e-02, 6.074719427374814e-02, -6.249365807909892e-03, 8.974643448683360e-03, 2.642702075348806e-02, -3.225112701932622e-03, -9.989929985390712e-03, -1.014339795381739e-02}
			{-9.104329814397914e-02, -5.828844506304082e-02, 1.523710831969109e-02, -6.136411971234684e-03, 6.136163416883671e-02, 5.319623963397272e-02, 3.816900860138683e-02, -6.045930778827300e-03}
		0-2
			{2.168584914767354e-02, 7.977383857344698e-02, 3.762054258562808e-02, 1.137924749427524e-02, 9.073174685985324e-03, 5.779109563845483e-03, 2.523646671704258e-03, -1.878656413897438e-03}
			{2.700592937649646e-02, 7.765881208952506e-03, 2.235738067561776e-02, 9.321799525857042e-03, 1.822825821070225e-04, -5.314842163777158e-03, -5.004128017797296e-03, -2.049688616650806e-03}
			{1.001611180575815e-03, 1.758376163092655e-01, 1.025410457660396e-01, 1.024616306485594e-01, 5.102221002208104e-02, 3.028136942936764e-02, -8.627315184310815e-03, -4.934986445538372e-03}
			{-1.133611822950995e-03, 1.118210705182970e-01, 8.250477884717275e-02, -8.041322619289545e-03, -1.145794249122209e-02, -1.431335407255893e-02, -4.168796843141599e-02, -2.785629961336656e-02}
		0-3
			{2.795370983782108e-02, 8.818171939747516e-02, 4.023594640940156e-02, 9.640723765465244e-03, 3.387862779785003e-03, -3.008454432542813e-03, -5.412386103008134e-03, -5.835501522889474e-03}
			{3.535612947780355e-03, -3.023327670999266e-02, -8.680429640224623e-03, -3.305826004154442e-03, -1.682698266306917e-03, -4.147185002613608e-03, -2.656464631349488e-04, -9.856990071796664e-04}
			{-3.478846652203849e-02, 3.993367675456479e-02, -1.047149139548276e-02, -2.528628576122482e-03, 2.742740405181519e-03, -2.049476993363846e-05, -1.308777756294516e-02, -7.248285412790145e-03}
			{-1.189332343981536e-01, -7.155316361282717e-03, -3.312114453485934e-02, 6.753469632520949e-02, 8.232914368928793e-02, 8.064446836410001e-02, 2.092241773687763e-02, 8.973566850364626e-03}
		0-4
			{4.804317309138617e-02, 1.439900082025625e-01, 7.348423104579342e-02, 4.507635118401285e-02, 2.147075777907705e-02, 1.344060934444063e-02, 4.052338112427210e-04, 8.124884722238188e-04}
			{3.565328600677880e-02, 7.610985963153903e-02, 6.491297893194992e-02, 6.486167160757682e-02, 4.957503927577001e-02, 3.142964437264994e-02, 1.403558817359229e-02, 4.041525696061052e-03}
			{-1.224703024430763e-01, -7.396610822898292e-02, -1.190521302940492e-01, -5.745635437900033e-02, -1.425896059409846e-02, -1.483454380321956e-02, -1.887430490945257e-02, -9.015397292471873e-03}
			{-1.555402788043231e-01, -2.374090051075647e-01, 1.122019434537436e-02, -9.995055547087424e-02, 1.294082720765793e-01, 7.523987380167846e-02, 6.231090057308921e-02, -2.171228232095440e-02}
		1-0
			{-8.474962206475246e-02, -1.199663968487944e-01, -7.328327957989446e-02, -5.915585837741055e-02, -3.332058779644453e-02, -2.838548006647695e-03, -9.838772558467160e-04, 1.635157493351712e-03}
			{1.002616451941590e-01, 1.680191466929603e-01, 1.410976621232942e-01, 6.371075382860726e-02, 6.083896356373462e-02, 1.187931327742890e-02, 4.743327750183807e-03, -5.834695971900872e-03}
			{2.824731404178993e-02, 9.205247520272432e-02, 3.751899285908474e-02, 4.216603413787488e-02, 2.821644525258620e-02, 8.232236414232973e-03, -2.194470456025226e-03, -3.283789185924835e-03}
			{-2.104501045318843e-02, 1.554072462838917e-03, -7.594221453017708e-02, -1.306231424961136e-01, -1.445961423291969e-01, -1.152073619335870e-01, -6.923697480935341e-02, -1.142022865116783e-02}
		1-1
			{6.466491434216108e-02, 1.598279418280797e-01, 1.743236418563710e-01, 1.078870025644983e-01, 7.035942009614106e-02, 4.255999725593535e-02, 1.792252189078285e-02, 7.564246742593059e-04}
			{-3.880540913597152e-02, -1.620533154840909e-01, -3.976962394485013e-02, -7.985146814987301e-02, -3.019281156178041e-02, -1.591210169186683e-02, -1.412456386320534e-02, -4.684369269923629e-03}
			{1.159226227704112e-01, 2.691064703770490e-01, 2.411866853956316e-01, 2.092551303812793e-01, 1.423234626558851e-01, 1.023833898703220e-01, 5.101611105127116e-02, 1.398144761214096e-02}
			{-1.002018147045803e-01, -1.135006853679616e-01, -9.996784341011394e-02, -1.013488111128468e-01, -7.059396903457354e-02, -5.264161506107901e-02, -2.491666055718886e-02, -6.304107862828818e-03}
		1-2
			{-6.027258895957861e-02, -7.659937588598720e-02, -2.761509671056562e-02, -2.712640024065587e-02, -1.017414027262891e-02, 3.697511900963612e-03, 1.864496764271147e-03, 4.281127227654859e-04}
			{1.198188242217711e-01, 2.384559603973872e-01, 1.732258613616275e-01, 1.198897518986994e-01, 8.685345886234518e-02, 4.222273216355651e-02, 1.902872731842305e-02, 9.342029326013053e-03}
			{-5.074931129053039e-02, -6.102817401693323e-02, -7.545933890019649e-02, -4.692377928575359e-02, -3.860136003087685e-02, -2.912806898608350e-02, -1.756608599273625e-02, -4.857721273648410e-03}
			{3.995459396342671e-02, 4.888746203292443e-02, 1.366350880345571e-01, -3.448668498124199e-02, -1.960989887929971e-02, -6.901957276925451e-02, -1.911246584363584e-02, -2.529985426793291e-02}
		1-3
			{-1.931319969792659e-02, 1.816735247353555e-02, 4.494611882435055e-02, 3.640111273101507e-02, 3.012600340957483e-02, 3.089551316422410e-02, 1.427627436767012e-02, 6.164079653667517e-03}
			{1.212589247290203e-01, 2.688401579399516e-01, 1.919897663381839e-01, 1.521856136275773e-01, 1.051415972889435e-01, 6.211075927885219e-02, 2.763891731709674e-02, 9.529625108995278e-03}
			{2.360607615482911e-02, 8.793372904300284e-02, 4.891639698013422e-02, 4.183219495675457e-02, 1.269966345147516e-02, 8.630875627434562e-03, 3.887680743868385e-03, 4.436832670323825e-03}
			{4.658547707915431e-04, 2.243339172295493e-02, 3.929972491251310e-03, -4.613926698412892e-02, -4.015040148009087e-02, -1.836646361198154e-02, 2.250549169163793e-03, -2.886783200852152e-03}
		1-4
			{-1.969099113916270e-01, -3.045719491183377e-01, -2.573721369819670e-01, -2.033242172770152e-01, -1.325670759978348e-01, -7.626593229874079e-02, -3.763497249102849e-02, -1.340921020960064e-02}
			{1.115369272654337e-01, 1.297692499297783e-01, 9.896639768234912e-02, -1.501087401441517e-02, -2.826564759109901e-02, -5.774607060266783e-02, -3.624921881936333e-02, -1.913192312161073e-02}
			{-4.478930831366315e-02, -1.386227990472704e-01, -7.940635096734938e-02, -1.165879181253780e-01, -8.828804809811207e-02, -8.538334940355730e-02, -4.476008222745105e-02, -2.072848387777138e-02}
			{-6.688424787309153e-03, -1.293460305682101e-01, 1.001169975891513e-01, -1.734760424526471e-02, -9.415358351341052e-04, -1.710828887534926e-02, 2.428265493385354e-02, 7.075323467758896e-03}
		2-0
			{5.738310967761855e-02, 1.549652611912909e-01, 1.025286925748126e-01, 6.760420368132251e-02, 4.674015123853570e-02, 2.248516974679102e-02, 8.421974613216409e-03, -1.055867933872248e-03}
			{1.317194368939971e-01, 1.535369745496850e-01, 1.514827972432115e-01, 1.126277808042739e-01, 9.022232750915796e-02, 4.428184269253461e-02, 2.851229971737992e-02, 8.827869216461160e-03}
			{6.541879560663393e-02, 1.199637385919286e-01, 1.080609017756151e-01, 8.074397603912757e-02, 5.903427453646640e-02, 3.496224819073774e-02, 1.346647890045952e-02, 5.203597717900209e-03}
			{-3.384545537453471e-03, 1.290917327228037e-01, 8.643455006072254e-02, 8.250013474977835e-02, 1.149668035631934e-01, 6.899257074934290e-02, 6.374232140014228e-02, 3.150322797728591e-02}
		2-1
			{8.531293118462348e-02, 2.249949432062561e-01, 1.590217841244612e-01, 1.114551849036668e-01, 7.548251507212630e-02, 3.781495461520949e-02, 1.669450927032865e-02, 2.205930609854642e-03}
			{6.380200416030292e-02, 1.746960974543610e-02, 5.847194570533207e-02, 6.509565253867085e-02, 6.527481364231517e-02, 2.897910707430449e-02, 1.403491450965864e-02, 6.608297524320555e-03}
			{-8.142342113023467e-02, -1.598603064367730e-01, -1.305180462597081e-01, -8.221225289628606e-02, -5.042931140578306e-02, -2.423247216816424e-02, -1.454601283879813e-02, -3.053215486020502e-04}
			{-8.298261323391125e-02, 3.278087307444471e-02, -6.269426331461116e-02, 3.304747406773333e-02, 4.694569528015137e-02, 7.692589049731691e-02, 1.771541120422657e-02, 2.352910960749840e-02}
		2-2
			{3.339727283069086e-02, 1.086866260243782e-01, 6.346102607409088e-02, 3.864958524562036e-02, 2.441501110301537e-02, 8.301446279898110e-03, 2.184002054884645e-03, -1.515558300771459e-03}
			{9.666495807808620e-02, 8.181490130546942e-02, 8.506669698715756e-02, 4.574507699305659e-02, 3.375405266263567e-02, 9.399472531277422e-03, 5.456672681249740e-03, 1.883772156849328e-04}
			{4.051769539866985e-03, -1.152587805645819e-02, -7.152322996405548e-03, -1.286220752593883e-02, -6.689626456765354e-03, -7.940033372337665e-03, -8.480348007990805e-03, -4.555050050645632e-03}
			{-8.962943180804858e-03, 6.117482945563172e-02, 3.584410521113208e-02, -1.430862376102843e-02, 1.013555927842353e-02, -1.286837869735550e-02, -1.159121536023464e-02, -8.175300758033589e-03}
		2-3
			{4.936789258051239e-03, 5.209310959699790e-02, 1.894522601533957e-02, 1.812077989606444e-02, 1.137586010356037e-02, 1.061810074074859e-02, 4.589922293352145e-03, 6.739323158198477e-04}
			{1.616362627847671e-01, 2.048800279661648e-01, 1.920641326418821e-01, 1.398121029269469e-01, 8.578481198125890e-02, 3.812285343342634e-02, 2.028297421384368e-02, 7.944324571933330e-03}
			{2.804840838698839e-02, 2.325942183558967e-02, 2.918858838204817e-02, -5.561854056056315e-03, 8.027608387007701e-03, -5.192006879424390e-03, 1.435014011291549e-03, -1.901181974989377e-03}
			{5.510316629287615e-02, 1.280713263913647e-01, 3.354523320720391e-02, -7.579358721473453e-02, -1.015113415326202e-01, -1.154605509072544e-01, -6.147636416940544e-02, -2.325203767096279e-02}
		2-4
			{-1.180004317892659e-02, 3.468082220873155e-02, -9.525289691639505e-03, 6.008471509263954e-04, 2.845894403773903e-04, 2.716930764792826e-03, -5.694664475392569e-03, -2.607271073132370e-03}
			{9.870109751992293e-02, 1.892393879042874e-01, 1.579148683842900e-01, 1.745091619546845e-01, 1.287946504906163e-01, 8.095831432895806e-02, 4.342287581368984e-02, 1.735854781516376e-02}
			{-3.072203683224449e-02, 5.168862646267550e-03, -1.884515533188468e-02, -4.308141371329348e-03, 1.797044381656019e-04, 3.768113573837161e-03, -8.282903998698037e-03, 2.802286277753370e-04}
			{-1.328886251258749e-01, -2.324812206463492e-01, 1.099670477855920e-02, -3.220848451341518e-02, 1.966047450608847e-01, 8.591050737255725e-02, 6.407450774858903e-02, -3.297535912047471e-02}
		3-0
			{-3.940147915642200e-03, 3.578038271784603e-02, 3.093969897937052e-02, 1.587381460144127e-02, 7.922388238077175e-03, 8.055990364116443e-03, -4.322219262018902e-03, -1.630609824253200e-03}
			{1.996943624687864e-02, -9.575920277902722e-03, 2.559789954966388e-03, 1.364159847290254e-02, 9.595227581688758e-03, 6.275444678680548e-03, 8.959491918520669e-03, 5.127364284742423e-03}
			{-1.215038671975758e-02, 1.110688769385765e-01, 3.374824294140787e-02, 1.087412719263319e-01, 6.026564792695663e-02, 3.751959520243089e-02, 3.730046131522962e-02, 9.044457282793674e-03}
			{7.477876592906743e-02, 1.618109314155771e-01, 1.363558656052120e-01, -3.692281398964143e-02, -2.063349338379515e-02, -5.636384240607228e-02, -7.432704352443673e-03, -7.133388591425013e-03}
		3-1
			{-2.356711986441313e-02, -1.332764667295613e-02, -1.550782704826562e-03, -1.843346553238038e-02, -1.236539894066958e-02, -4.453763938959426e-03, -1.071602135879186e-02, -4.681344568436170e-03}
			{2.064698264481013e-02, -2.364196095496492e-02, 5.858552233316572e-03, 9.161398888202279e-03, 1.056504084438112e-02, 5.376884146971441e-03, 1.042647901148641e-02, 3.844400241301111e-03}
			{-6.305181326436635e-02, 6.892303548371169e-02, -2.910796463742091e-02, 6.854207212931734e-02, 4.443890277735553e-02, 3.635641076056577e-02, 4.086316733754931e-02, 1.112060867496486e-02}
			{-9.934800706982318e-02, -2.685502333058068e-02, -3.920752475647360e-03, 4.360839933688740e-03, 5.482555077837290e-02, 1.239730439788637e-02, 2.335703781865513e-03, 9.414524048585216e-04}
		3-2
			{1.663788607120480e-02, 7.772802507161282e-02, 5.736449544059650e-02, 3.804840456285431e-02, 2.216506500043284e-02, 1.660852107841271e-02, -3.082484894346740e-03, 1.307632731682000e-04}
			{2.525712496340643e-02, -6.845749139899065e-03, 2.732979523203404e-03, 8.069328145047025e-04, -1.222641525442061e-03, -6.308877892060443e-03, 5.691011265018634e-03, 1.191318728628917e-03}
			{1.400476863044174e-02, 1.100868606149496e-01, 2.392920080368980e-02, 4.760169704306835e-02, -2.323105024902242e-03, -2.784558004984954e-02, -2.609817191819550e-04, -8.263046897532345e-03}
			{-6.853208718011805e-02, 5.880039172659810e-03, 5.961344982934216e-02, 7.236327023038293e-02, 1.442801060160097e-01, 1.061474850103275e-01, 6.268871337661626e-02, 1.563689843480024e-02}
		3-3
			{-5.301785214893857e-03, 3.052894639855344e-02, 1.731644272485346e-02, 6.533393441751701e-03, 8.350613083802668e-03, 5.587860305428305e-03, -4.044550170476578e-03, 3.442808923952034e-05}
			{3.659598321203951e-02, 3.375628186073554e-02, 3.579614363593774e-02, 3.558335438739848e-02, 1.795328366712310e-02, 1.108942586067922e-02, 1.065634937101242e-02, 3.619746813890421e-03}
			{3.634375296659600e-02, 1.660453045953562e-01, 5.891585365906910e-02, 6.731440709315997e-02, -3.181556573895684e-03, 3.716921012128352e-04, 9.040751431835378e-03, -1.865911137259183e-03}
			{-3.534059390500056e-03, 7.853881527500667e-02, 4.708886253884718e-02, 1.713089329442606e-04, 6.660192346809929e-03, -8.465591521559658e-03, -4.777275604798241e-04, -3.587451062789366e-03}
		3-4
			{-6.414959217429084e-02, -9.370916280564119e-02, -8.331060514931923e-02, -8.441534038701874e-02, -5.448794271965925e-02, -2.965349809041886e-02, -1.641906806025617e-02, -4.962223870639184e-03}
			{5.473628943555464e-02, 4.398065199785915e-02, 5.643310593647561e-02, 4.852012834324077e-02, 2.987544951287091e-02, 9.765783881664155e-03, 8.993593899973378e-03, 1.583973361267059e-03}
			{4.788217350063124e-02, 1.313865470179349e-01, 5.949356615467623e-02, 5.985220906597684e-02, 6.404278115926784e-03, -2.562957180646248e-02, -5.990180424282862e-03, -7.979995251222642e-03}
			{-1.290129262924515e-01, -9.132424178810442e-02, -8.143087264635863e-02, 2.392894044084086e-02, 8.776266684172143e-02, 1.383031471338901e-01, 6.753307155040436e-02, 4.925834007124755e-02}
		4-0
			{7.375554967369126e-02, 1.065094160266948e-01, 3.794855920018031e-02, 2.723100733279362e-02, 1.040634594418122e-02, 8.774781728023898e-04, -4.226505445203926e-03, -9.577039158041675e-04}
			{2.760078775733764e-02, -1.822657630997015e-02, 8.447920119370692e-02, 3.949422088811101e-02, 3.747199541144170e-02, 2.796049240944561e-02, 1.692930357704720e-02, 3.376288784234328e-03}
			{-1.462325942151689e-01, -9.116298344500839e-02, -4.214896455814331e-02, 1.714666215498564e-02, 2.311675916403574e-02, 2.248998418234847e-02, 1.374757309523853e-02, 8.153759762531586e-03}
			{-9.165524066595343e-03, 2.533361449502426e-02, -1.022293957023750e-01, -6.433726272790893e-02, -1.338449761053578e-01, -1.041200991299266e-01, -6.540573476901511e-02, 6.637422314567073e-03}
		4-1
			{6.270441469058169e-02, 1.079922655503252e-01, 2.412318575626661e-02, 2.398715849928119e-02, 4.833381022488220e-03, -4.172624280686516e-04, -5.260527892645471e-03, -4.674733652074529e-04}
			{2.336242953572048e-02, -3.249470840188445e-02, 1.217571137715316e-01, 7.697937695937510e-02, 7.822268502195764e-02, 5.499005148413851e-02, 3.487407338181874e-02, 1.016500938454911e-02}
			{-1.142990568242429e-01, -1.346588322357058e-01, -3.317518442601567e-02, -3.117237055451417e-02, 2.233936463150274e-02, -6.051300020138536e-03, 3.659824099543646e-03, -3.733664117206855e-03}
			{-6.907695458953010e-03, 6.502716698157887e-02, -1.844200493082299e-02, -4.177283166493424e-02, 3.680116652598583e-02, -4.021946249451964e-03, -1.792470298661454e-02, -9.137092536436145e-03}
		4-2
			{1.140464901573035e-01, 1.712541454507711e-01, 1.077678740280604e-01, 7.387260208528801e-02, 4.100553212285928e-02, 1.987039583479432e-02, 5.137634923540249e-03, 6.130743123229171e-04}
			{6.867817011779716e-02, 8.199839167247398e-02, 1.396365872119435e-01, 1.009553546931771e-01, 7.025265038399647e-02, 5.127776256507685e-02, 2.052925978474372e-02, 4.257652087097691e-03}
			{-1.383447121620901e-01, -6.376293934009733e-02, -4.277767927730734e-02, 1.990188847633893e-02, 1.255982354837213e-02, 8.553691405015997e-03, 1.271462928519317e-02, 1.504474226670839e-02}
			{-9.491510867814469e-03, 1.417262325562036e-01, -4.753662125324097e-02, -3.831439243271966e-02, -1.352651532662807e-01, -8.551907545489000e-02, -5.761563879967627e-02, 2.104215205026378e-02}
		4-3
			{1.166995133641882e-01, 1.812492266926217e-01, 1.163490558998427e-01, 8.873790060653708e-02, 4.782871239509109e-02, 2.822594994439307e-02, 1.040638842189633e-02, 4.814546701204060e-03}
			{-4.949799353376743e-02, -1.024017211809431e-01, -4.415984316742617e-02, -3.271767745056636e-02, -2.539277410941388e-02, 5.082724663222691e-03, 1.021411976508881e-03, 3.278280797398902e-03}
			{-2.058906690266136e-01, -2.631300161073581e-01, -1.946835454869197e-01, -1.303582949239498e-01, -6.963053509426539e-02, -7.330509331056623e-02, -3.152122420691703e-02, -1.681790888346730e-02}
			{1.679216498089004e-02, 4.703555936331507e-02, 1.918978464207525e-02, -7.922821706463895e-02, -7.502464351042282e-02, -1.535188384730145e-01, -6.923218555901973e-02, -4.740143203271037e-02}
		4-4
			{8.206542120730825e-02, 1.007663925684071e-01, 5.354785288349742e-02, 1.556028747704238e-02, 1.826581965423571e-02, -1.920108218730861e-03, -2.782186783044291e-04, -2.093396804847268e-04}
			{3.011747455372575e-02, -1.438208576781289e-02, 7.489383186054170e-02, 3.575910380851754e-02, 4.593693832641114e-02, 3.176913619100485e-02, 1.533208483496811e-02, 5.895296264795876e-04}
			{-1.388755110144175e-01, -1.447368188671899e-01, -6.539774195768218e-02, -3.347228043789034e-02, -1.853521422518218e-02, -6.039600147228577e-03, -6.751919986141556e-04, 2.642662588136140e-04}
			{7.398671755597711e-03, -1.664709116965303e-02, 3.262868146907876e-02, -3.763779368178063e-02, 1.957975957827966e-03, -2.437873066722068e-02, -6.892444776615029e-03, -2.186704308017192e-03}
alpha_moments_count = 350
alpha_index_basic_count = 130
alpha_index_basic = {{0, 0, 0, 0}, {0, 1, 0, 0}, {0, 0, 1, 0}, {0, 0, 0, 1}, {0, 2, 0, 0}, {0, 1, 1, 0}, {0, 1, 0, 1}, {0, 0, 2, 0}, {0, 0, 1, 1}, {0, 0, 0, 2}, {0, 3, 0, 0}, {0, 2, 1, 0}, {0, 2, 0, 1}, {0, 1, 2, 0}, {0, 1, 1, 1}, {0, 1, 0, 2}, {0, 0, 3, 0}, {0, 0, 2, 1}, {0, 0, 1, 2}, {0, 0, 0, 3}, {0, 4, 0, 0}, {0, 3, 1, 0}, {0, 3, 0, 1}, {0, 2, 2, 0}, {0, 2, 1, 1}, {0, 2, 0, 2}, {0, 1, 3, 0}, {0, 1, 2, 1}, {0, 1, 1, 2}, {0, 1, 0, 3}, {0, 0, 4, 0}, {0, 0, 3, 1}, {0, 0, 2, 2}, {0, 0, 1, 3}, {0, 0, 0, 4}, {0, 5, 0, 0}, {0, 4, 1, 0}, {0, 4, 0, 1}, {0, 3, 2, 0}, {0, 3, 1, 1}, {0, 3, 0, 2}, {0, 2, 3, 0}, {0, 2, 2, 1}, {0, 2, 1, 2}, {0, 2, 0, 3}, {0, 1, 4, 0}, {0, 1, 3, 1}, {0, 1, 2, 2}, {0, 1, 1, 3}, {0, 1, 0, 4}, {0, 0, 5, 0}, {0, 0, 4, 1}, {0, 0, 3, 2}, {0, 0, 2, 3}, {0, 0, 1, 4}, {0, 0, 0, 5}, {0, 6, 0, 0}, {0, 5, 1, 0}, {0, 5, 0, 1}, {0, 4, 2, 0}, {0, 4, 1, 1}, {0, 4, 0, 2}, {0, 3, 3, 0}, {0, 3, 2, 1}, {0, 3, 1, 2}, {0, 3, 0, 3}, {0, 2, 4, 0}, {0, 2, 3, 1}, {0, 2, 2, 2}, {0, 2, 1, 3}, {0, 2, 0, 4}, {0, 1, 5, 0}, {0, 1, 4, 1}, {0, 1, 3, 2}, {0, 1, 2, 3}, {0, 1, 1, 4}, {0, 1, 0, 5}, {0, 0, 6, 0}, {0, 0, 5, 1}, {0, 0, 4, 2}, {0, 0, 3, 3}, {0, 0, 2, 4}, {0, 0, 1, 5}, {0, 0, 0, 6}, {1, 0, 0, 0}, {1, 1, 0, 0}, {1, 0, 1, 0}, {1, 0, 0, 1}, {1, 2, 0, 0}, {1, 1, 1, 0}, {1, 1, 0, 1}, {1, 0, 2, 0}, {1, 0, 1, 1}, {1, 0, 0, 2}, {1, 3, 0, 0}, {1, 2, 1, 0}, {1, 2, 0, 1}, {1, 1, 2, 0}, {1, 1, 1, 1}, {1, 1, 0, 2}, {1, 0, 3, 0}, {1, 0, 2, 1}, {1, 0, 1, 2}, {1, 0, 0, 3}, {1, 4, 0, 0}, {1, 3, 1, 0}, {1, 3, 0, 1}, {1, 2, 2, 0}, {1, 2, 1, 1}, {1, 2, 0, 2}, {1, 1, 3, 0}, {1, 1, 2, 1}, {1, 1, 1, 2}, {1, 1, 0, 3}, {1, 0, 4, 0}, {1, 0, 3, 1}, {1, 0, 2, 2}, {1, 0, 1, 3}, {1, 0, 0, 4}, {2, 0, 0, 0}, {2, 1, 0, 0}, {2, 0, 1, 0}, {2, 0, 0, 1}, {2, 2, 0, 0}, {2, 1, 1, 0}, {2, 1, 0, 1}, {2, 0, 2, 0}, {2, 0, 1, 1}, {2, 0, 0, 2}, {3, 0, 0, 0}}
alpha_index_times_count = 969
alpha_index_times = {{0, 0, 1, 130}, {1, 1, 1, 131}, {2, 2, 1, 131}, {3, 3, 1, 131}, {1, 4, 1, 132}, {2, 5, 1, 132}, {3, 6, 1, 132}, {1, 5, 1, 133}, {2, 7, 1, 133}, {3, 8, 1, 133}, {1, 6, 1, 134}, {2, 8, 1, 134}, {3, 9, 1, 134}, {1, 10, 1, 135}, {2, 11, 1, 135}, {3, 12, 1, 135}, {1, 11, 1, 136}, {2, 13, 1, 136}, {3, 14, 1, 136}, {1, 12, 1, 137}, {2, 14, 1, 137}, {3, 15, 1, 137}, {1, 13, 1, 138}, {2, 16, 1, 138}, {3, 17, 1, 138}, {1, 14, 1, 139}, {2, 17, 1, 139}, {3, 18, 1, 139}, {1, 15, 1, 140}, {2, 18, 1, 140}, {3, 19, 1, 140}, {4, 4, 1, 141}, {5, 5, 1, 141}, {6, 6, 1, 141}, {4, 5, 1, 142}, {5, 7, 1, 142}, {6, 8, 1, 142}, {4, 6, 1, 143}, {5, 8, 1, 143}, {6, 9, 1, 143}, {5, 5, 1, 144}, {7, 7, 1, 144}, {8, 8, 1, 144}, {5, 6, 1, 145}, {7, 8, 1, 145}, {8, 9, 1, 145}, {6, 6, 1, 146}, {8, 8, 1, 146}, {9, 9, 1, 146}, {4, 10, 1, 147}, {5, 11, 1, 147}, {6, 12, 1, 147}, {4, 11, 1, 148}, {5, 13, 1, 148}, {6, 14, 1, 148}, {4, 12, 1, 149}, {5, 14, 1, 149}, {6, 15, 1, 149}, {4, 13, 1, 150}, {5, 16, 1, 150}, {6, 17, 1, 150}, {4, 14, 1, 151}, {5, 17, 1, 151}, {6, 18, 1, 151}, {4, 15, 1, 152}, {5, 18, 1, 152}, {6, 19, 1, 152}, {5, 10, 1, 153}, {7, 11, 1, 153}, {8, 12, 1, 153}, {5, 11, 1, 154}, {7, 13, 1, 154}, {8, 14, 1, 154}, {5, 12, 1, 155}, {7, 14, 1, 155}, {8, 15, 1, 155}, {5, 13, 1, 156}, {7, 16, 1, 156}, {8, 17, 1, 156}, {5, 14, 1, 157}, {7, 17, 1, 157}, {8, 18, 1, 157}, {5, 15, 1, 158}, {7, 18, 1, 158}, {8, 19, 1, 158}, {6, 10, 1, 159}, {8, 11, 1, 159}, {9, 12, 1, 159}, {6, 11, 1, 160}, {8, 13, 1, 160}, {9, 14, 1, 160}, {6, 12, 1, 161}, {8, 14, 1, 161}, {9, 15, 1, 161}, {6, 13, 1, 162}, {8, 16, 1, 162}, {9, 17, 1, 162}, {6, 14, 1, 163}, {8, 17, 1, 163}, {9, 18, 1, 163}, {6, 15, 1, 164}, {8, 18, 1, 164}, {9, 19, 1, 164}, {4, 4, 1, 165}, {5, 5, 2, 165}, {6, 6, 2, 165}, {7, 7, 1, 165}, {8, 8, 2, 165}, {9, 9, 1, 165}, {4, 10, 1, 166}, {5, 11, 2, 166}, {6, 12, 2, 166}, {7, 13, 1, 166}, {8, 14, 2, 166}, {9, 15, 1, 166}, {4, 11, 1, 167}, {5, 13, 2, 167}, {6, 14, 2, 167}, {7, 16, 1, 167}, {8, 17, 2, 167}, {9, 18, 1, 167}, {4, 12, 1, 168}, {5, 14, 2, 168}, {6, 15, 2, 168}, {7, 17, 1, 168}, {8, 18, 2, 168}, {9, 19, 1, 168}, {4, 20, 1, 169}, {5, 21, 2, 169}, {6, 22, 2, 169}, {7, 23, 1, 169}, {8, 24, 2, 169}, {9, 25, 1, 169}, {4, 21, 1, 170}, {5, 23, 2, 170}, {6, 24, 2, 170}, {7, 26, 1, 170}, {8, 27, 2, 170}, {9, 28, 1, 170}, {4, 22, 1, 171}, {5, 24, 2, 171}, {6, 25, 2, 171}, {7, 27, 1, 171}, {8, 28, 2, 171}, {9, 29, 1, 171}, {4, 23, 1, 172}, {5, 26, 2, 172}, {6, 27, 2, 172}, {7, 30, 1, 172}, {8, 31, 2, 172}, {9, 32, 1, 172}, {4, 24, 1, 173}, {5, 27, 2, 173}, {6, 28, 2, 173}, {7, 31, 1, 173}, {8, 32, 2, 173}, {9, 33, 1, 173}, {4, 25, 1, 174}, {5, 28, 2, 174}, {6, 29, 2, 174}, {7, 32, 1, 174}, {8, 33, 2, 174}, {9, 34, 1, 174}, {10, 10, 1, 175}, {11, 11, 2, 175}, {12, 12, 2, 175}, {13, 13, 1, 175}, {14, 14, 2, 175}, {15, 15, 1, 175}, {10, 11, 1, 176}, {11, 13, 2, 176}, {12, 14, 2, 176}, {13, 16, 1, 176}, {14, 17, 2, 176}, {15, 18, 1, 176}, {10, 12, 1, 177}, {11, 14, 2, 177}, {12, 15, 2, 177}, {13, 17, 1, 177}, {14, 18, 2, 177}, {15, 19, 1, 177}, {11, 11, 1, 178}, {13, 13, 2, 178}, {14, 14, 2, 178}, {16, 16, 1, 178}, {17, 17, 2, 178}, {18, 18, 1, 178}, {11, 12, 1, 179}, {13, 14, 2, 179}, {14, 15, 2, 179}, {16, 17, 1, 179}, {17, 18, 2, 179}, {18, 19, 1, 179}, {12, 12, 1, 180}, {14, 14, 2, 180}, {15, 15, 2, 180}, {17, 17, 1, 180}, {18, 18, 2, 180}, {19, 19, 1, 180}, {10, 20, 1, 181}, {11, 21, 2, 181}, {12, 22, 2, 181}, {13, 23, 1, 181}, {14, 24, 2, 181}, {15, 25, 1, 181}, {10, 21, 1, 182}, {11, 23, 2, 182}, {12, 24, 2, 182}, {13, 26, 1, 182}, {14, 27, 2, 182}, {15, 28, 1, 182}, {10, 22, 1, 183}, {11, 24, 2, 183}, {12, 25, 2, 183}, {13, 27, 1, 183}, {14, 28, 2, 183}, {15, 29, 1, 183}, {10, 23, 1, 184}, {11, 26, 2, 184}, {12, 27, 2, 184}, {13, 30, 1, 184}, {14, 31, 2, 184}, {15, 32, 1, 184}, {10, 24, 1, 185}, {11, 27, 2, 185}, {12, 28, 2, 185}, {13, 31, 1, 185}, {14, 32, 2, 185}, {15, 33, 1, 185}, {10, 25, 1, 186}, {11, 28, 2, 186}, {12, 29, 2, 186}, {13, 32, 1, 186}, {14, 33, 2, 186}, {15, 34, 1, 186}, {11, 20, 1, 187}, {13, 21, 2, 187}, {14, 22, 2, 187}, {16, 23, 1, 187}, {17, 24, 2, 187}, {18, 25, 1, 187}, {11, 21, 1, 188}, {13, 23, 2, 188}, {14, 24, 2, 188}, {16, 26, 1, 188}, {17, 27, 2, 188}, {18, 28, 1, 188}, {11, 22, 1, 189}, {13, 24, 2, 189}, {14, 25, 2, 189}, {16, 27, 1, 189}, {17, 28, 2, 189}, {18, 29, 1, 189}, {11, 23, 1, 190}, {13, 26, 2, 190}, {14, 27, 2, 190}, {16, 30, 1, 190}, {17, 31, 2, 190}, {18, 32, 1, 190}, {11, 24, 1, 191}, {13, 27, 2, 191}, {14, 28, 2, 191}, {16, 31, 1, 191}, {17, 32, 2, 191}, {18, 33, 1, 191}, {11, 25, 1, 192}, {13, 28, 2, 192}, {14, 29, 2, 192}, {16, 32, 1, 192}, {17, 33, 2, 192}, {18, 34, 1, 192}, {12, 20, 1, 193}, {14, 21, 2, 193}, {15, 22, 2, 193}, {17, 23, 1, 193}, {18, 24, 2, 193}, {19, 25, 1, 193}, {12, 21, 1, 194}, {14, 23, 2, 194}, {15, 24, 2, 194}, {17, 26, 1, 194}, {18, 27, 2, 194}, {19, 28, 1, 194}, {12, 22, 1, 195}, {14, 24, 2, 195}, {15, 25, 2, 195}, {17, 27, 1, 195}, {18, 28, 2, 195}, {19, 29, 1, 195}, {12, 23, 1, 196}, {14, 26, 2, 196}, {15, 27, 2, 196}, {17, 30, 1, 196}, {18, 31, 2, 196}, {19, 32, 1, 196}, {12, 24, 1, 197}, {14, 27, 2, 197}, {15, 28, 2, 197}, {17, 31, 1, 197}, {18, 32, 2, 197}, {19, 33, 1, 197}, {12, 25, 1, 198}, {14, 28, 2, 198}, {15, 29, 2, 198}, {17, 32, 1, 198}, {18, 33, 2, 198}, {19, 34, 1, 198}, {10, 10, 1, 199}, {11, 11, 3, 199}, {12, 12, 3, 199}, {13, 13, 3, 199}, {14, 14, 6, 199}, {15, 15, 3, 199}, {16, 16, 1, 199}, {17, 17, 3, 199}, {18, 18, 3, 199}, {19, 19, 1, 199}, {10, 20, 1, 200}, {11, 21, 3, 200}, {12, 22, 3, 200}, {13, 23, 3, 200}, {14, 24, 6, 200}, {15, 25, 3, 200}, {16, 26, 1, 200}, {17, 27, 3, 200}, {18, 28, 3, 200}, {19, 29, 1, 200}, {10, 21, 1, 201}, {11, 23, 3, 201}, {12, 24, 3, 201}, {13, 26, 3, 201}, {14, 27, 6, 201}, {15, 28, 3, 201}, {16, 30, 1, 201}, {17, 31, 3, 201}, {18, 32, 3, 201}, {19, 33, 1, 201}, {10, 22, 1, 202}, {11, 24, 3, 202}, {12, 25, 3, 202}, {13, 27, 3, 202}, {14, 28, 6, 202}, {15, 29, 3, 202}, {16, 31, 1, 202}, {17, 32, 3, 202}, {18, 33, 3, 202}, {19, 34, 1, 202}, {10, 35, 1, 203}, {11, 36, 3, 203}, {12, 37, 3, 203}, {13, 38, 3, 203}, {14, 39, 6, 203}, {15, 40, 3, 203}, {16, 41, 1, 203}, {17, 42, 3, 203}, {18, 43, 3, 203}, {19, 44, 1, 203}, {10, 36, 1, 204}, {11, 38, 3, 204}, {12, 39, 3, 204}, {13, 41, 3, 204}, {14, 42, 6, 204}, {15, 43, 3, 204}, {16, 45, 1, 204}, {17, 46, 3, 204}, {18, 47, 3, 204}, {19, 48, 1, 204}, {10, 37, 1, 205}, {11, 39, 3, 205}, {12, 40, 3, 205}, {13, 42, 3, 205}, {14, 43, 6, 205}, {15, 44, 3, 205}, {16, 46, 1, 205}, {17, 47, 3, 205}, {18, 48, 3, 205}, {19, 49, 1, 205}, {10, 38, 1, 206}, {11, 41, 3, 206}, {12, 42, 3, 206}, {13, 45, 3, 206}, {14, 46, 6, 206}, {15, 47, 3, 206}, {16, 50, 1, 206}, {17, 51, 3, 206}, {18, 52, 3, 206}, {19, 53, 1, 206}, {10, 39, 1, 207}, {11, 42, 3, 207}, {12, 43, 3, 207}, {13, 46, 3, 207}, {14, 47, 6, 207}, {15, 48, 3, 207}, {16, 51, 1, 207}, {17, 52, 3, 207}, {18, 53, 3, 207}, {19, 54, 1, 207}, {10, 40, 1, 208}, {11, 43, 3, 208}, {12, 44, 3, 208}, {13, 47, 3, 208}, {14, 48, 6, 208}, {15, 49, 3, 208}, {16, 52, 1, 208}, {17, 53, 3, 208}, {18, 54, 3, 208}, {19, 55, 1, 208}, {20, 20, 1, 209}, {21, 21, 3, 209}, {22, 22, 3, 209}, {23, 23, 3, 209}, {24, 24, 6, 209}, {25, 25, 3, 209}, {26, 26, 1, 209}, {27, 27, 3, 209}, {28, 28, 3, 209}, {29, 29, 1, 209}, {20, 21, 1, 210}, {21, 23, 3, 210}, {22, 24, 3, 210}, {23, 26, 3, 210}, {24, 27, 6, 210}, {25, 28, 3, 210}, {26, 30, 1, 210}, {27, 31, 3, 210}, {28, 32, 3, 210}, {29, 33, 1, 210}, {20, 22, 1, 211}, {21, 24, 3, 211}, {22, 25, 3, 211}, {23, 27, 3, 211}, {24, 28, 6, 211}, {25, 29, 3, 211}, {26, 31, 1, 211}, {27, 32, 3, 211}, {28, 33, 3, 211}, {29, 34, 1, 211}, {21, 21, 1, 212}, {23, 23, 3, 212}, {24, 24, 3, 212}, {26, 26, 3, 212}, {27, 27, 6, 212}, {28, 28, 3, 212}, {30, 30, 1, 212}, {31, 31, 3, 212}, {32, 32, 3, 212}, {33, 33, 1, 212}, {21, 22, 1, 213}, {23, 24, 3, 213}, {24, 25, 3, 213}, {26, 27, 3, 213}, {27, 28, 6, 213}, {28, 29, 3, 213}, {30, 31, 1, 213}, {31, 32, 3, 213}, {32, 33, 3, 213}, {33, 34, 1, 213}, {22, 22, 1, 214}, {24, 24, 3, 214}, {25, 25, 3, 214}, {27, 27, 3, 214}, {28, 28, 6, 214}, {29, 29, 3, 214}, {31, 31, 1, 214}, {32, 32, 3, 214}, {33, 33, 3, 214}, {34, 34, 1, 214}, {20, 20, 1, 215}, {21, 21, 4, 215}, {22, 22, 4, 215}, {23, 23, 6, 215}, {24, 24, 12, 215}, {25, 25, 6, 215}, {26, 26, 4, 215}, {27, 27, 12, 215}, {28, 28, 12, 215}, {29, 29, 4, 215}, {30, 30, 1, 215}, {31, 31, 4, 215}, {32, 32, 6, 215}, {33, 33, 4, 215}, {34, 34, 1, 215}, {20, 35, 1, 216}, {21, 36, 4, 216}, {22, 37, 4, 216}, {23, 38, 6, 216}, {24, 39, 12, 216}, {25, 40, 6, 216}, {26, 41, 4, 216}, {27, 42, 12, 216}, {28, 43, 12, 216}, {29, 44, 4, 216}, {30, 45, 1, 216}, {31, 46, 4, 216}, {32, 47, 6, 216}, {33, 48, 4, 216}, {34, 49, 1, 216}, {20, 36, 1, 217}, {21, 38, 4, 217}, {22, 39, 4, 217}, {23, 41, 6, 217}, {24, 42, 12, 217}, {25, 43, 6, 217}, {26, 45, 4, 217}, {27, 46, 12, 217}, {28, 47, 12, 217}, {29, 48, 4, 217}, {30, 50, 1, 217}, {31, 51, 4, 217}, {32, 52, 6, 217}, {33, 53, 4, 217}, {34, 54, 1, 217}, {20, 37, 1, 218}, {21, 39, 4, 218}, {22, 40, 4, 218}, {23, 42, 6, 218}, {24, 43, 12, 218}, {25, 44, 6, 218}, {26, 46, 4, 218}, {27, 47, 12, 218}, {28, 48, 12, 218}, {29, 49, 4, 218}, {30, 51, 1, 218}, {31, 52, 4, 218}, {32, 53, 6, 218}, {33, 54, 4, 218}, {34, 55, 1, 218}, {35, 35, 1, 219}, {36, 36, 5, 219}, {37, 37, 5, 219}, {38, 38, 10, 219}, {39, 39, 20, 219}, {40, 40, 10, 219}, {41, 41, 10, 219}, {42, 42, 30, 219}, {43, 43, 30, 219}, {44, 44, 10, 219}, {45, 45, 5, 219}, {46, 46, 20, 219}, {47, 47, 30, 219}, {48, 48, 20, 219}, {49, 49, 5, 219}, {50, 50, 1, 219}, {51, 51, 5, 219}, {52, 52, 10, 219}, {53, 53, 10, 219}, {54, 54, 5, 219}, {55, 55, 1, 219}, {56, 56, 1, 220}, {57, 57, 6, 220}, {58, 58, 6, 220}, {59, 59, 15, 220}, {60, 60, 30, 220}, {61, 61, 15, 220}, {62, 62, 20, 220}, {63, 63, 60, 220}, {64, 64, 60, 220}, {65, 65, 20, 220}, {66, 66, 15, 220}, {67, 67, 60, 220}, {68, 68, 90, 220}, {69, 69, 60, 220}, {70, 70, 15, 220}, {71, 71, 6, 220}, {72, 72, 30, 220}, {73, 73, 60, 220}, {74, 74, 60, 220}, {75, 75, 30, 220}, {76, 76, 6, 220}, {77, 77, 1, 220}, {78, 78, 6, 220}, {79, 79, 15, 220}, {80, 80, 20, 220}, {81, 81, 15, 220}, {82, 82, 6, 220}, {83, 83, 1, 220}, {0, 84, 1, 221}, {1, 85, 1, 222}, {2, 86, 1, 222}, {3, 87, 1, 222}, {1, 88, 1, 223}, {2, 89, 1, 223}, {3, 90, 1, 223}, {1, 89, 1, 224}, {2, 91, 1, 224}, {3, 92, 1, 224}, {1, 90, 1, 225}, {2, 92, 1, 225}, {3, 93, 1, 225}, {4, 85, 1, 226}, {5, 86, 1, 226}, {6, 87, 1, 226}, {5, 85, 1, 227}, {7, 86, 1, 227}, {8, 87, 1, 227}, {6, 85, 1, 228}, {8, 86, 1, 228}, {9, 87, 1, 228}, {4, 88, 1, 229}, {5, 89, 1, 229}, {6, 90, 1, 229}, {4, 89, 1, 230}, {5, 91, 1, 230}, {6, 92, 1, 230}, {4, 90, 1, 231}, {5, 92, 1, 231}, {6, 93, 1, 231}, {5, 88, 1, 232}, {7, 89, 1, 232}, {8, 90, 1, 232}, {5, 89, 1, 233}, {7, 91, 1, 233}, {8, 92, 1, 233}, {5, 90, 1, 234}, {7, 92, 1, 234}, {8, 93, 1, 234}, {6, 88, 1, 235}, {8, 89, 1, 235}, {9, 90, 1, 235}, {6, 89, 1, 236}, {8, 91, 1, 236}, {9, 92, 1, 236}, {6, 90, 1, 237}, {8, 92, 1, 237}, {9, 93, 1, 237}, {4, 88, 1, 238}, {5, 89, 2, 238}, {6, 90, 2, 238}, {7, 91, 1, 238}, {8, 92, 2, 238}, {9, 93, 1, 238}, {4, 94, 1, 239}, {5, 95, 2, 239}, {6, 96, 2, 239}, {7, 97, 1, 239}, {8, 98, 2, 239}, {9, 99, 1, 239}, {4, 95, 1, 240}, {5, 97, 2, 240}, {6, 98, 2, 240}, {7, 100, 1, 240}, {8, 101, 2, 240}, {9, 102, 1, 240}, {4, 96, 1, 241}, {5, 98, 2, 241}, {6, 99, 2, 241}, {7, 101, 1, 241}, {8, 102, 2, 241}, {9, 103, 1, 241}, {10, 88, 1, 242}, {11, 89, 2, 242}, {12, 90, 2, 242}, {13, 91, 1, 242}, {14, 92, 2, 242}, {15, 93, 1, 242}, {11, 88, 1, 243}, {13, 89, 2, 243}, {14, 90, 2, 243}, {16, 91, 1, 243}, {17, 92, 2, 243}, {18, 93, 1, 243}, {12, 88, 1, 244}, {14, 89, 2, 244}, {15, 90, 2, 244}, {17, 91, 1, 244}, {18, 92, 2, 244}, {19, 93, 1, 244}, {10, 94, 1, 245}, {11, 95, 3, 245}, {12, 96, 3, 245}, {13, 97, 3, 245}, {14, 98, 6, 245}, {15, 99, 3, 245}, {16, 100, 1, 245}, {17, 101, 3, 245}, {18, 102, 3, 245}, {19, 103, 1, 245}, {20, 104, 1, 246}, {21, 105, 4, 246}, {22, 106, 4, 246}, {23, 107, 6, 246}, {24, 108, 12, 246}, {25, 109, 6, 246}, {26, 110, 4, 246}, {27, 111, 12, 246}, {28, 112, 12, 246}, {29, 113, 4, 246}, {30, 114, 1, 246}, {31, 115, 4, 246}, {32, 116, 6, 246}, {33, 117, 4, 246}, {34, 118, 1, 246}, {0, 119, 1, 247}, {1, 120, 1, 248}, {2, 121, 1, 248}, {3, 122, 1, 248}, {4, 123, 1, 249}, {5, 124, 2, 249}, {6, 125, 2, 249}, {7, 126, 1, 249}, {8, 127, 2, 249}, {9, 128, 1, 249}, {0, 129, 1, 250}, {84, 84, 1, 251}, {85, 85, 1, 252}, {86, 86, 1, 252}, {87, 87, 1, 252}, {88, 88, 1, 253}, {89, 89, 2, 253}, {90, 90, 2, 253}, {91, 91, 1, 253}, {92, 92, 2, 253}, {93, 93, 1, 253}, {84, 119, 1, 254}, {0, 130, 1, 255}, {0, 131, 1, 256}, {0, 165, 1, 257}, {0, 199, 1, 258}, {0, 215, 1, 259}, {0, 219, 1, 260}, {1, 132, 1, 261}, {2, 133, 1, 261}, {3, 134, 1, 261}, {1, 135, 1, 262}, {2, 136, 1, 262}, {3, 137, 1, 262}, {1, 136, 1, 263}, {2, 138, 1, 263}, {3, 139, 1, 263}, {1, 137, 1, 264}, {2, 139, 1, 264}, {3, 140, 1, 264}, {1, 141, 1, 265}, {2, 142, 1, 265}, {3, 143, 1, 265}, {1, 142, 1, 266}, {2, 144, 1, 266}, {3, 145, 1, 266}, {1, 143, 1, 267}, {2, 145, 1, 267}, {3, 146, 1, 267}, {1, 166, 1, 268}, {2, 167, 1, 268}, {3, 168, 1, 268}, {1, 169, 1, 269}, {2, 170, 1, 269}, {3, 171, 1, 269}, {1, 170, 1, 270}, {2, 172, 1, 270}, {3, 173, 1, 270}, {1, 171, 1, 271}, {2, 173, 1, 271}, {3, 174, 1, 271}, {1, 175, 1, 272}, {2, 176, 1, 272}, {3, 177, 1, 272}, {1, 176, 1, 273}, {2, 178, 1, 273}, {3, 179, 1, 273}, {1, 177, 1, 274}, {2, 179, 1, 274}, {3, 180, 1, 274}, {1, 200, 1, 275}, {2, 201, 1, 275}, {3, 202, 1, 275}, {1, 216, 1, 276}, {2, 217, 1, 276}, {3, 218, 1, 276}, {4, 141, 1, 277}, {5, 142, 1, 277}, {6, 143, 1, 277}, {4, 142, 1, 278}, {5, 144, 1, 278}, {6, 145, 1, 278}, {4, 143, 1, 279}, {5, 145, 1, 279}, {6, 146, 1, 279}, {5, 141, 1, 280}, {7, 142, 1, 280}, {8, 143, 1, 280}, {5, 142, 1, 281}, {7, 144, 1, 281}, {8, 145, 1, 281}, {5, 143, 1, 282}, {7, 145, 1, 282}, {8, 146, 1, 282}, {6, 141, 1, 283}, {8, 142, 1, 283}, {9, 143, 1, 283}, {6, 142, 1, 284}, {8, 144, 1, 284}, {9, 145, 1, 284}, {6, 143, 1, 285}, {8, 145, 1, 285}, {9, 146, 1, 285}, {4, 166, 1, 286}, {5, 167, 1, 286}, {6, 168, 1, 286}, {5, 166, 1, 287}, {7, 167, 1, 287}, {8, 168, 1, 287}, {6, 166, 1, 288}, {8, 167, 1, 288}, {9, 168, 1, 288}, {4, 169, 1, 289}, {5, 170, 2, 289}, {6, 171, 2, 289}, {7, 172, 1, 289}, {8, 173, 2, 289}, {9, 174, 1, 289}, {4, 203, 1, 290}, {5, 204, 2, 290}, {6, 205, 2, 290}, {7, 206, 1, 290}, {8, 207, 2, 290}, {9, 208, 1, 290}, {4, 141, 1, 291}, {5, 142, 2, 291}, {6, 143, 2, 291}, {7, 144, 1, 291}, {8, 145, 2, 291}, {9, 146, 1, 291}, {4, 147, 1, 292}, {5, 148, 1, 292}, {5, 153, 1, 292}, {6, 149, 1, 292}, {6, 159, 1, 292}, {7, 154, 1, 292}, {8, 155, 1, 292}, {8, 160, 1, 292}, {9, 161, 1, 292}, {4, 148, 1, 293}, {5, 150, 1, 293}, {5, 154, 1, 293}, {6, 151, 1, 293}, {6, 160, 1, 293}, {7, 156, 1, 293}, {8, 157, 1, 293}, {8, 162, 1, 293}, {9, 163, 1, 293}, {4, 149, 1, 294}, {5, 151, 1, 294}, {5, 155, 1, 294}, {6, 152, 1, 294}, {6, 161, 1, 294}, {7, 157, 1, 294}, {8, 158, 1, 294}, {8, 163, 1, 294}, {9, 164, 1, 294}, {4, 175, 1, 295}, {5, 176, 2, 295}, {6, 177, 2, 295}, {7, 178, 1, 295}, {8, 179, 2, 295}, {9, 180, 1, 295}, {4, 209, 1, 296}, {5, 210, 2, 296}, {6, 211, 2, 296}, {7, 212, 1, 296}, {8, 213, 2, 296}, {9, 214, 1, 296}, {10, 181, 1, 297}, {11, 182, 2, 297}, {11, 187, 1, 297}, {12, 183, 2, 297}, {12, 193, 1, 297}, {13, 184, 1, 297}, {13, 188, 2, 297}, {14, 185, 2, 297}, {14, 189, 2, 297}, {14, 194, 2, 297}, {15, 186, 1, 297}, {15, 195, 2, 297}, {16, 190, 1, 297}, {17, 191, 2, 297}, {17, 196, 1, 297}, {18, 192, 1, 297}, {18, 197, 2, 297}, {19, 198, 1, 297}, {0, 221, 1, 298}, {0, 222, 1, 299}, {0, 238, 1, 300}, {0, 245, 1, 301}, {1, 223, 1, 302}, {2, 224, 1, 302}, {3, 225, 1, 302}, {1, 239, 1, 303}, {2, 240, 1, 303}, {3, 241, 1, 303}, {84, 131, 1, 304}, {1, 226, 1, 305}, {2, 227, 1, 305}, {3, 228, 1, 305}, {1, 242, 1, 306}, {2, 243, 1, 306}, {3, 244, 1, 306}, {4, 229, 1, 307}, {5, 230, 1, 307}, {5, 232, 1, 307}, {6, 231, 1, 307}, {6, 235, 1, 307}, {7, 233, 1, 307}, {8, 234, 1, 307}, {8, 236, 1, 307}, {9, 237, 1, 307}, {84, 165, 1, 308}, {85, 166, 1, 309}, {86, 167, 1, 309}, {87, 168, 1, 309}, {84, 199, 1, 310}, {0, 247, 1, 311}, {0, 248, 1, 312}, {119, 131, 1, 313}, {0, 251, 1, 314}, {0, 252, 1, 315}, {84, 222, 1, 316}, {131, 131, 1, 317}, {131, 165, 1, 318}, {131, 199, 1, 319}, {165, 165, 1, 320}, {131, 222, 1, 321}, {0, 255, 1, 322}, {0, 256, 1, 323}, {0, 257, 1, 324}, {0, 258, 1, 325}, {0, 259, 1, 326}, {0, 261, 1, 327}, {0, 268, 1, 328}, {0, 275, 1, 329}, {0, 289, 1, 330}, {0, 291, 1, 331}, {0, 295, 1, 332}, {1, 262, 1, 333}, {2, 263, 1, 333}, {3, 264, 1, 333}, {1, 269, 1, 334}, {2, 270, 1, 334}, {3, 271, 1, 334}, {1, 265, 1, 335}, {2, 266, 1, 335}, {3, 267, 1, 335}, {1, 272, 1, 336}, {2, 273, 1, 336}, {3, 274, 1, 336}, {1, 292, 1, 337}, {2, 293, 1, 337}, {3, 294, 1, 337}, {1, 286, 1, 338}, {2, 287, 1, 338}, {3, 288, 1, 338}, {4, 277, 1, 339}, {5, 278, 1, 339}, {5, 280, 1, 339}, {6, 279, 1, 339}, {6, 283, 1, 339}, {7, 281, 1, 339}, {8, 282, 1, 339}, {8, 284, 1, 339}, {9, 285, 1, 339}, {0, 298, 1, 340}, {0, 299, 1, 341}, {0, 300, 1, 342}, {0, 302, 1, 343}, {0, 304, 1, 344}, {0, 305, 1, 345}, {0, 308, 1, 346}, {84, 261, 1, 347}, {0, 311, 1, 348}, {0, 314, 1, 349}}
alpha_scalar_moments = 92
alpha_moment_mapping = {0, 84, 119, 129, 130, 131, 165, 199, 215, 219, 220, 221, 222, 238, 245, 246, 247, 248, 249, 250, 251, 252, 253, 254, 255, 256, 257, 258, 259, 260, 261, 268, 275, 276, 289, 290, 291, 295, 296, 297, 298, 299, 300, 301, 302, 303, 304, 305, 306, 307, 308, 309, 310, 311, 312, 313, 314, 315, 316, 322, 323, 324, 325, 326, 327, 328, 329, 330, 331, 332, 333, 334, 317, 335, 336, 337, 318, 338, 319, 320, 339, 340, 341, 342, 343, 344, 345, 346, 321, 347, 348, 349}
species_coeffs = {-4.710204498784169e+00, -5.775758703239737e+00, -3.767344977654163e+00, -3.800042866253139e+00, -2.714298603194435e+00}
moment_coeffs = {1.158619106997014e-01, -7.937071342311290e-02, -1.447363602344822e-02, 9.244468662451469e-01, -9.569270729146532e-01, 1.361875827886873e+00, 4.245197872048713e+00, 2.440996076542421e+00, -1.864238188631771e+00, -4.263766313534023e+00, -3.098699740773409e+00, -4.537660482595038e-01, 5.640378016850255e-01, 2.010140959484320e+00, -4.734010168516676e-01, -1.857720660725261e+00, -1.081228601408884e-01, 3.316732688589264e-02, -2.629911112116345e-01, 1.301045917229733e-01, -1.040978530326075e-01, -1.253985984768962e-02, -1.528992589261471e-01, -3.365846254624894e-01, -5.723232605954706e-01, 2.160919269644612e+00, 4.317021591714392e+00, -6.528312975100226e-02, -2.869109116709283e+00, -1.477566870713531e+00, -1.015899773808506e+00, -9.217863273186616e+00, 2.028850328410941e+00, 1.521909936942809e+00, -7.970339011362502e+00, 8.727784600654606e-01, 1.374901301035005e+00, 5.275654287611141e+00, 4.641991055838766e+00, 2.048135652838754e-01, -3.194901435126303e-01, 6.728330200948464e-01, 5.373934107814478e-01, -4.327889274530551e-01, 4.077578969339407e-01, 6.110484363702996e-01, -3.674100446184231e-03, -1.120368067929056e+00, 2.404515517655039e-01, -3.656979059227762e-01, 3.109682785897033e-01, 3.797230715376601e-01, -6.408957124027076e-02, -4.277800090425606e-02, -1.310370966168782e-01, 1.314117878456930e-01, -1.366431361984375e-01, 2.645668116106794e-02, -1.837308691588879e-01, -6.928171243044856e-02, 4.544825337863879e+00, -8.105706717408968e-02, -1.770238800373298e+00, 1.200292457778312e+00, -1.262217280280322e+00, -1.160490303037384e+01, 1.478314235318396e+00, -1.252925798791084e+00, 2.840457075909542e-01, 7.137282215952069e+00, -2.040105302895578e-01, 9.949265849881394e+00, -1.633925621095738e+00, -6.234207955941956e+00, 2.286857247812574e-01, 7.051807281959297e+00, -5.865337598533814e+00, -2.454481328898995e+00, 2.119182021341134e+00, -5.753410686238856e-01, 4.383066955248898e-01, -8.066697378450942e-02, 2.194078706233155e-01, 1.000922431490792e-01, 5.042838736483051e-01, -5.152656546442623e-02, -1.166760352010941e-01, 1.386813714262383e-01, -1.010865304770034e-01, 1.352412720849647e-01, -8.096438556000842e-03, -8.997354716017425e-03}